net {
}
node Context{
    states = ("Broadcast Media"  "Legislative and Official Proceedings"  "Other"  "Personal and Campaign Communications"  "Print and Online Publications"  "Public Speaking"  "Social Media and Online Platforms");
}
node Credibility_Label{
    states = ("barely-true"  "false"  "half-true"  "mostly-true"  "pants-fire"  "true");
}
node Job_Title{
    states = ("Business & Industry Leaders"  "Education & Non-Profit"  "Government Officials"  "Legal & Advocacy"  "Media Professionals"  "Others");
}
node Party_Affiliation{
    states = ("Democrat"  "Independent"  "Media"  "Other"  "Republican");
}
node Past_Credibility_Score{
    states = ("-1 to 1"  "-3 to -1"  "1 to 3");
}
node Sentiment{
    states = ("NEGATIVE"  "POSITIVE");
}
node Subject{
    states = ("Economy and Finance"  "Environment and Energy"  "Foreign Policy and Security"  "Healthcare"  "Law and Ethics"  "Other"  "Politics and Government"  "Social Issues");
}
node Subjectivity{
    states = ("OBJECTIVE"  "SUBJECTIVE");
}
potential (Context | Job_Title Party_Affiliation){
 data = (((0.3667 0.0167 0.2167 0.1167 0.0667 0.2    0.0167)
  (0.3333 0.0     0.0     0.0     0.0     0.0     0.6667)
  (0.1429 0.1429 0.1429 0.1429 0.1429 0.1429 0.1429)
  (0.2151 0.1183 0.2581 0.1183 0.1505 0.1183 0.0215)
  (0.3462 0.0077 0.1308 0.1885 0.0346 0.1923 0.1   ))

 ((0.2656 0.0156 0.2344 0.2031 0.0312 0.2344 0.0156)
  (0.1429 0.1429 0.1429 0.1429 0.1429 0.1429 0.1429)
  (0.0     0.0     1.0     0.0     0.0     0.0     0.0    )
  (0.2683 0.0244 0.0488 0.2439 0.1707 0.2439 0.0    )
  (0.3846 0.0256 0.2564 0.0897 0.0385 0.1667 0.0385))

 ((0.2924 0.015  0.1815 0.131  0.0406 0.3094 0.03  )
  (0.4701 0.0     0.1453 0.094  0.0085 0.2051 0.0769)
  (0.1429 0.1429 0.1429 0.1429 0.1429 0.1429 0.1429)
  (0.2578 0.0547 0.2344 0.0703 0.0859 0.2578 0.0391)
  (0.3525 0.0213 0.1698 0.1271 0.0526 0.2263 0.0504))

 ((0.1894 0.0076 0.197  0.2045 0.0985 0.1894 0.1136)
  (0.7143 0.0     0.2857 0.0     0.0     0.0     0.0    )
  (0.1429 0.1429 0.1429 0.1429 0.1429 0.1429 0.1429)
  (0.0635 0.0317 0.3175 0.3333 0.0952 0.0317 0.127 )
  (0.3358 0.0073 0.1679 0.2263 0.0584 0.1387 0.0657))

 ((0.1562 0.0     0.5625 0.1562 0.0     0.0625 0.0625)
  (0.2353 0.0     0.6471 0.0     0.0     0.1176 0.0    )
  (0.1212 0.0     0.5    0.1061 0.2273 0.0455 0.0    )
  (0.1637 0.0     0.5064 0.1535 0.0818 0.0077 0.087 )
  (0.4344 0.0     0.2049 0.1148 0.0656 0.1311 0.0492))

 ((0.2383 0.0172 0.2187 0.2236 0.0516 0.1941 0.0565)
  (0.25   0.0     0.375  0.125  0.0     0.125  0.125 )
  (0.1111 0.0     0.5556 0.0     0.1111 0.2222 0.0    )
  (0.1516 0.0452 0.3032 0.1742 0.129  0.1    0.0968)
  (0.3784 0.0072 0.1838 0.1676 0.0505 0.155  0.0577)));
}
potential (Credibility_Label | Party_Affiliation Past_Credibility_Score){
 data = (((0.1631 0.1575 0.2241 0.2319 0.0372 0.1861)
  (0.0374 0.5508 0.0267 0.0     0.2513 0.1337)
  (0.0889 0.0287 0.3228 0.3817 0.0027 0.1751))

 ((0.163  0.1333 0.163  0.3852 0.0148 0.1407)
  (0.0     0.6667 0.0     0.0     0.0     0.3333)
  (0.0714 0.0     0.2857 0.5714 0.0     0.0714))

 ((0.25   0.1818 0.0682 0.2045 0.0227 0.2727)
  (0.0     0.7273 0.0     0.0     0.1818 0.0909)
  (0.0909 0.0     0.3182 0.5    0.0     0.0909))

 ((0.3516 0.1896 0.1566 0.1484 0.044  0.1099)
  (0.0896 0.4896 0.0657 0.0388 0.2836 0.0328)
  (0.0336 0.0031 0.3853 0.4924 0.0     0.0856))

 ((0.2035 0.2287 0.1999 0.1554 0.0755 0.1369)
  (0.0613 0.5253 0.0507 0.0133 0.2613 0.088 )
  (0.0937 0.0152 0.3823 0.3544 0.0     0.1544)));
}
potential (Job_Title | Subject){
 data = ((0.0522 0.0169 0.7214 0.0223 0.0517 0.1355)
 (0.0485 0.0155 0.7029 0.035  0.0738 0.1243)
 (0.0088 0.0074 0.7684 0.0295 0.0929 0.0929)
 (0.0331 0.0154 0.6825 0.0452 0.0783 0.1455)
 (0.0409 0.0227 0.5455 0.0727 0.0818 0.2364)
 (0.0427 0.0312 0.6422 0.0456 0.0814 0.157 )
 (0.0754 0.0273 0.6514 0.0356 0.0493 0.1609)
 (0.0378 0.017  0.6602 0.0494 0.0919 0.1436));
}
potential (Party_Affiliation | Job_Title){
 data = ((0.1442 0.0072 0.0     0.2236 0.625 )
 (0.3459 0.0     0.0108 0.2216 0.4216)
 (0.4214 0.0195 0.0     0.0213 0.5378)
 (0.3894 0.0206 0.0     0.1858 0.4041)
 (0.051  0.0271 0.1051 0.6226 0.1943)
 (0.3157 0.0062 0.007  0.2405 0.4306));
}
potential (Past_Credibility_Score | Job_Title Party_Affiliation){
 data = (((0.3333 0.2    0.4667)
  (0.0     0.0     1.0    )
  (0.3333 0.3333 0.3333)
  (0.2903 0.2581 0.4516)
  (0.8538 0.0769 0.0692))

 ((0.5781 0.1406 0.2812)
  (0.3333 0.3333 0.3333)
  (0.0     0.5    0.5   )
  (0.6585 0.0732 0.2683)
  (0.7179 0.1282 0.1538))

 ((0.7589 0.0383 0.2028)
  (0.9658 0.0     0.0342)
  (0.3333 0.3333 0.3333)
  (0.3438 0.2266 0.4297)
  (0.8423 0.0714 0.0863))

 ((0.4621 0.1591 0.3788)
  (0.8571 0.1429 0.0    )
  (0.3333 0.3333 0.3333)
  (0.4127 0.1429 0.4444)
  (0.7226 0.1095 0.1679))

 ((0.5312 0.0     0.4688)
  (0.5882 0.0     0.4118)
  (0.6515 0.1212 0.2273)
  (0.4066 0.4731 0.1202)
  (0.7377 0.2459 0.0164))

 ((0.6216 0.1179 0.2604)
  (0.75   0.25   0.0    )
  (0.1111 0.2222 0.6667)
  (0.2613 0.2742 0.4645)
  (0.7658 0.1243 0.1099)));
}
potential (Sentiment | Subject Subjectivity){
 data = (((0.684  0.316 )
  (0.7665 0.2335))

 ((0.6899 0.3101)
  (0.7429 0.2571))

 ((0.7376 0.2624)
  (0.7363 0.2637))

 ((0.7556 0.2444)
  (0.8144 0.1856))

 ((0.7312 0.2688)
  (0.9118 0.0882))

 ((0.6486 0.3514)
  (0.7081 0.2919))

 ((0.71   0.29  )
  (0.7778 0.2222))

 ((0.7479 0.2521)
  (0.816  0.184 )));
}
potential (Subject |){
 data = (0.2072 0.0581 0.0764 0.1023 0.0248 0.1954 0.1899 0.146 );
}
potential (Subjectivity | Context Past_Credibility_Score){
 data = (((0.8561 0.1439)
  (0.8789 0.1211)
  (0.908  0.092 ))

 ((0.8767 0.1233)
  (0.8485 0.1515)
  (0.9455 0.0545))

 ((0.8817 0.1183)
  (0.9295 0.0705)
  (0.9218 0.0782))

 ((0.9364 0.0636)
  (0.8696 0.1304)
  (0.9596 0.0404))

 ((0.9226 0.0774)
  (0.9661 0.0339)
  (0.9357 0.0643))

 ((0.8787 0.1213)
  (0.875  0.125 )
  (0.898  0.102 ))

 ((0.9094 0.0906)
  (0.9231 0.0769)
  (0.8916 0.1084)));
}
